digraph Tree {
node [shape=box] ;
0 [label=<X<SUB>2</SUB> &le; -0.39<br/>mae = 0.66<br/>samples = 1279<br/>value = 6.0>] ;
1 [label=<X<SUB>0</SUB> &le; -1.156<br/>mae = 0.401<br/>samples = 596<br/>value = 5.0>] ;
0 -> 1 [labeldistance=2.5, labelangle=45, headlabel="True"] ;
2 [label=<X<SUB>1</SUB> &le; -0.43<br/>mae = 0.525<br/>samples = 40<br/>value = 6.0>] ;
1 -> 2 ;
3 [label=<X<SUB>2</SUB> &le; -0.638<br/>mae = 0.4<br/>samples = 10<br/>value = 5.0>] ;
2 -> 3 ;
4 [label=<mae = 0.25<br/>samples = 8<br/>value = 5.0>] ;
3 -> 4 ;
5 [label=<mae = 0.0<br/>samples = 2<br/>value = 6.0>] ;
3 -> 5 ;
6 [label=<X<SUB>0</SUB> &le; -1.72<br/>mae = 0.433<br/>samples = 30<br/>value = 6.0>] ;
2 -> 6 ;
7 [label=<mae = 0.0<br/>samples = 2<br/>value = 7.0>] ;
6 -> 7 ;
8 [label=<mae = 0.393<br/>samples = 28<br/>value = 6.0>] ;
6 -> 8 ;
9 [label=<X<SUB>2</SUB> &le; -1.848<br/>mae = 0.363<br/>samples = 556<br/>value = 5.0>] ;
1 -> 9 ;
10 [label=<mae = 0.0<br/>samples = 1<br/>value = 3.0>] ;
9 -> 10 ;
11 [label=<X<SUB>0</SUB> &le; 3.149<br/>mae = 0.36<br/>samples = 555<br/>value = 5.0>] ;
9 -> 11 ;
12 [label=<mae = 0.359<br/>samples = 554<br/>value = 5.0>] ;
11 -> 12 ;
13 [label=<mae = 0.0<br/>samples = 1<br/>value = 4.0>] ;
11 -> 13 ;
14 [label=<X<SUB>0</SUB> &le; 1.884<br/>mae = 0.561<br/>samples = 683<br/>value = 6.0>] ;
0 -> 14 [labeldistance=2.5, labelangle=-45, headlabel="False"] ;
15 [label=<X<SUB>1</SUB> &le; -1.071<br/>mae = 0.528<br/>samples = 653<br/>value = 6.0>] ;
14 -> 15 ;
16 [label=<X<SUB>2</SUB> &le; 1.037<br/>mae = 0.5<br/>samples = 20<br/>value = 5.0>] ;
15 -> 16 ;
17 [label=<mae = 0.154<br/>samples = 13<br/>value = 5.0>] ;
16 -> 17 ;
18 [label=<mae = 0.429<br/>samples = 7<br/>value = 6.0>] ;
16 -> 18 ;
19 [label=<X<SUB>0</SUB> &le; -2.133<br/>mae = 0.52<br/>samples = 633<br/>value = 6.0>] ;
15 -> 19 ;
20 [label=<mae = 0.0<br/>samples = 2<br/>value = 7.0>] ;
19 -> 20 ;
21 [label=<mae = 0.518<br/>samples = 631<br/>value = 6.0>] ;
19 -> 21 ;
22 [label=<X<SUB>1</SUB> &le; -1.392<br/>mae = 0.733<br/>samples = 30<br/>value = 5.0>] ;
14 -> 22 ;
23 [label=<mae = 0.0<br/>samples = 1<br/>value = 3.0>] ;
22 -> 23 ;
24 [label=<X<SUB>1</SUB> &le; -1.13<br/>mae = 0.69<br/>samples = 29<br/>value = 5.0>] ;
22 -> 24 ;
25 [label=<mae = 0.333<br/>samples = 3<br/>value = 6.0>] ;
24 -> 25 ;
26 [label=<mae = 0.692<br/>samples = 26<br/>value = 5.0>] ;
24 -> 26 ;
}